10 128
4 -0.01046702 -0.0039372067 0.035663232 -0.014950063 -0.014744281 -0.038678832 -0.014912116 0.025255721 -0.0035032132 -0.0044686003 0.058062956 0.016108437 -0.029070381 -0.0044346782 -0.03224788 -0.018356238 -0.010381719 0.016009474 -0.024474747 0.009599332 0.035020698 -0.01363019 0.036728974 -0.0077787973 -0.009194236 0.030111456 -0.03364255 0.009771821 -0.004290577 -0.018030271 -0.04251448 0.004790262 -0.008115199 -0.0007023482 0.018130958 0.011775646 0.043706052 0.003647746 0.033163816 -0.003962951 -0.015088708 0.044007055 -0.025758281 -0.027385823 0.018007947 0.0014203774 -0.001058535 -0.00074247865 -0.0027811357 0.00654899 0.0060404423 0.0029171593 0.0021655594 0.024292666 0.041895315 0.010129896 0.028292846 -0.023692954 -0.0023803895 0.004512929 0.010500472 -0.026348826 0.0018357977 -0.004614345 0.002197945 0.021226298 0.038415343 0.032403808 -0.0066148574 -0.0044977213 0.0013049924 -0.015793914 0.00011084459 -0.037729282 -0.0051867752 0.0059634508 0.024936622 0.0006253541 0.002428048 0.0022467854 -0.016476795 -0.010256213 0.025159264 0.02972037 -0.013930488 -0.0068369703 0.03082896 -0.00406339 0.010514169 0.026257379 -0.006538008 -0.011247681 -0.018006042 -0.01347351 0.031727355 -0.014944384 -0.0487128 -0.034239173 0.026021445 0.0018230975 -0.060363878 0.020583507 0.019703826 0.012476307 0.032779418 -0.0018861688 0.0037301814 -0.035457496 -0.015262294 -0.043825526 -0.004684581 -0.010588923 -0.012807151 -0.012878615 0.025133712 0.011022086 0.005247877 0.026044797 0.013544242 0.0068629384 -0.009463589 -0.008247357 0.013979178 -0.01770236 -0.014625306 -0.014363628 -0.01476836 -0.0025350014
9 -0.011509394 0.0013699627 0.04029154 -0.02546865 -0.008320473 -0.038285997 -0.01745198 0.020910373 0.005965025 0.0029097502 0.06038164 0.024810132 -0.019366903 -0.015422772 -0.036112834 -0.01758695 -0.015392305 0.021658972 -0.013696348 0.015900983 0.030855061 -0.016450051 0.038179323 -0.016114762 -0.014495803 0.036132257 -0.034050755 0.012074445 0.008628116 -0.009900714 -0.037765745 0.011874238 -0.022626946 0.007513669 0.01681676 0.009321896 0.04059445 0.012628009 0.03944237 -0.004698413 -0.002081914 0.045898516 -0.022196691 -0.030886145 0.022614485 0.006813454 0.0043282877 -0.013482317 -0.012367775 -0.002549237 0.016514756 -0.003507635 -0.0020546576 0.027252296 0.03944145 0.008718657 0.025943378 -0.020047342 0.0001538548 -0.010566969 0.013750592 -0.030683404 0.006200626 -0.00011943777 0.005192159 0.013380029 0.037426025 0.030418457 -8.001064e-05 -0.008334338 -0.010695789 -0.01926658 0.0011466964 -0.028737806 -0.013970308 0.0044975146 0.02559174 0.006811016 0.0016201127 0.010921891 -0.022701802 -0.0076855696 0.017992534 0.022074673 -0.0023058287 -0.0076727793 0.032103125 -0.004870485 0.01696753 0.028923528 -0.01465658 -0.015423232 -0.026331948 -0.01730411 0.021440294 -0.025781209 -0.035845548 -0.032752935 0.032605678 0.0008082924 -0.059856053 0.02084914 0.020403674 0.0024557759 0.021382866 0.00075426453 -0.0038301446 -0.042015966 -0.013722136 -0.036961183 -0.0033012393 -0.0050598714 -0.012971895 -0.017066183 0.02216131 0.010883334 0.0032324255 0.023769317 0.017846905 0.0052100797 -0.014900154 -0.005826424 0.009015594 -0.012486442 -0.0256933 -0.023201313 -0.018214833 -0.01084875
1 -0.011900021 -0.007549536 0.029194724 -0.026247129 -0.0045752074 -0.038073067 -0.0149059305 0.020727426 -0.004934988 0.0054353704 0.06130911 0.022393165 -0.03241724 -0.005710219 -0.027619721 -0.0140734175 -0.010103993 0.017436186 -0.021710498 0.024574304 0.03880263 -0.015892152 0.031552684 -0.009377895 -0.014242857 0.02836244 -0.04154452 0.0055182804 0.0025195964 -0.02044422 -0.04248383 0.0005642489 -0.010409679 0.005565589 0.018051226 0.01845063 0.04700826 0.0059260535 0.04118634 0.0040945048 -0.0035346881 0.042884003 -0.013801666 -0.030899076 0.012969384 0.0090996465 0.0054211724 -0.010248651 -0.003920408 -0.0036981017 0.014770928 0.005051329 0.010185279 0.019517962 0.04492232 0.017867042 0.029572243 -0.024060754 0.006940792 -0.004916191 0.019257814 -0.032696404 -0.00049422705 0.006622077 0.004993344 0.018936245 0.048949435 0.03709696 -0.012549682 -0.0046929205 0.0013930231 -0.020801893 0.002966947 -0.032092847 -0.008411191 0.0027722588 0.014986295 -0.0005371889 0.007567305 0.015978549 -0.009614116 -0.017698435 0.014996757 0.03309194 -0.0073257573 -0.004575801 0.032529987 -0.0022672685 0.019210635 0.024604263 -0.0062749614 -0.014014977 -0.024332909 -0.016355947 0.028715346 -0.01985397 -0.051680945 -0.037953705 0.022031164 -0.0033138776 -0.055659566 0.026138924 0.021077838 0.0053565884 0.029043 0.006692311 0.008673246 -0.043707523 -0.01055852 -0.04599045 -0.0058607273 0.0018589082 -0.010778534 -0.027358107 0.02844153 0.0030123012 -0.00071370247 0.029191716 0.01566862 0.003936505 -0.015982289 0.00028784302 0.0035999962 -0.009116453 -0.025075901 -0.012705373 -0.008038243 -0.0039740433
2 -0.010568151 -0.0062259035 0.038334604 -0.01722248 -0.009067972 -0.039761014 -0.026080199 0.017036326 -4.3533357e-05 -0.004281073 0.05845373 0.015805792 -0.02078497 -0.015085066 -0.02989608 -0.020923287 -0.018281057 0.015515153 -0.023570484 0.015265237 0.031974636 -0.012717147 0.03200376 -0.006490741 -0.017538322 0.03840395 -0.03737536 0.008537881 -0.0053637745 -0.013065994 -0.03992949 0.0020971338 -0.017816976 0.009602683 0.024574677 0.009042153 0.037612524 0.0017854739 0.038456082 0.0072396756 -0.010264458 0.03982555 -0.017634528 -0.018859819 0.010863877 0.0017430207 0.010588989 -0.0062164105 -0.005927533 -0.008114308 0.01847412 -0.0057737553 0.0030444085 0.026629874 0.033941302 0.014585812 0.026003277 -0.023227694 -0.00782775 0.004119141 0.016056031 -0.031870473 0.008152078 0.0009784142 0.007143818 0.013891231 0.041685566 0.030671703 0.0032520394 -0.009598331 -0.0038874827 -0.028046077 -0.006651654 -0.03699241 -0.009168683 0.0005645367 0.02244105 -0.004013224 0.006096366 0.008951446 -0.018156126 -0.01301799 0.02877404 0.030524407 -0.013287449 -0.001119635 0.020735752 0.0048615695 0.009791545 0.023215776 -0.005244185 -0.0055906503 -0.02217146 -0.006431684 0.03002924 -0.025840834 -0.047628812 -0.03362833 0.02710121 -0.005466522 -0.058233887 0.010580278 0.021812879 0.009726134 0.019340303 -0.00096021924 0.0054165213 -0.04312613 -0.009130774 -0.042024266 -0.0026008692 -0.010548203 -0.003236547 -0.014493033 0.023202946 0.007784218 -0.006962913 0.02121506 0.0156072285 -0.000223316 -0.018181136 -0.005991334 0.010785574 -0.006912777 -0.024127578 -0.021889541 -0.014365834 -0.0071158176
6 -0.0132763665 -0.01041228 0.02079805 -0.022628596 -0.010213628 -0.028873451 -0.016238812 0.012268978 -0.00647015 -0.0015963961 0.04464472 0.01895786 -0.02416214 -0.009983825 -0.018264417 -0.019640176 -0.007961828 0.01651943 -0.0082602445 0.005861483 0.017870322 -0.019290453 0.02290201 0.0010008557 -0.0056314454 0.02784624 -0.019874241 0.0013918369 0.009034332 -0.016631356 -0.03235912 0.002164476 -0.012123245 0.0010819244 0.013943064 0.015934775 0.026688952 0.004796057 0.026518125 -0.007096097 0.0005380301 0.036284868 -0.021218624 -0.015798092 0.02129338 -0.0046916585 -0.0020747855 -0.01209619 0.0017542723 -0.00097274856 0.016267404 -0.006871785 0.0069825323 0.019456042 0.026462551 0.011673899 0.012006124 -0.020544006 0.0022862041 0.0023708763 0.014620665 -0.014839854 0.0029310319 0.0073303133 -0.0047517125 0.016903682 0.028647091 0.023662288 0.0026446313 -0.009632083 0.00219489 -0.023863133 0.00026179315 -0.028958216 -0.010350408 0.011328192 0.012386966 0.0033268277 0.010573015 0.014010407 -0.018109597 -0.011662551 0.02294176 0.021825396 -0.007850282 -0.013233809 0.021619622 -0.0057427464 0.016139915 0.011577171 -0.006428633 -0.00779963 -0.015370393 -0.009059953 0.022526497 -0.013814169 -0.032849032 -0.022111373 0.023357082 -0.0011133982 -0.04008152 0.020483365 0.007415487 0.0050332886 0.02680594 0.007737208 0.0032666966 -0.03639537 -0.008973549 -0.030321393 0.004306474 -0.0018883351 -0.005309312 -0.011516 0.0151592465 -0.00025945413 0.00050540984 0.013026188 0.017308269 0.012251216 -0.008971633 -0.00097218016 0.0006230262 -0.0062089874 -0.020070527 -0.01918782 -0.01228455 -0.011654313
3 -0.0026321786 -0.00793683 0.03346272 -0.023843272 -0.0038553157 -0.020518068 -0.023072284 0.0077461167 -0.0030378536 -0.0037994941 0.04369374 0.0073933783 -0.028154684 -0.0059152306 -0.030474368 -0.021456817 -0.012534756 0.005959545 -0.020842072 0.0075783823 0.024610924 -0.01826287 0.031826124 -0.0059297346 -0.014517824 0.032503515 -0.032413576 0.00091017445 -0.004526427 -0.016007174 -0.032338787 0.009786354 -0.015283466 0.00808296 0.022389667 0.005217049 0.03514485 0.011719751 0.025432197 0.0050879056 -0.0018525913 0.028657239 -0.021208309 -0.017924674 0.013864597 -0.0033675472 0.011645787 -0.01078117 -0.010754462 -0.00064856606 0.008075743 -0.00020938781 0.0016000309 0.019885339 0.02915842 0.011965215 0.027253991 -0.019936796 -0.001313477 0.0020692658 0.016202983 -0.02599885 0.0115458295 0.0073162215 -0.00058834546 0.016534777 0.036172345 0.020512316 -0.008006099 -0.010414509 -0.00300611 -0.019165298 0.004270733 -0.02780503 -0.0072401604 0.0065602027 0.01999074 0.0006917256 -0.0012610952 -8.417042e-06 -0.013356982 -0.005182476 0.019136619 0.013391178 -0.014305303 -0.001691651 0.018773403 0.004814074 0.0054268492 0.024283268 -0.01167183 -0.006833309 -0.018081017 -0.01649058 0.017925765 -0.016652066 -0.039472073 -0.025013398 0.015451425 -0.00053009763 -0.038267434 0.012916868 0.012614006 0.009672314 0.029448863 -0.0024022418 -0.0029474278 -0.03605844 -0.003944612 -0.032294784 -0.010626612 -0.004853931 0.00034925685 -0.02127336 0.014919538 0.012029901 -0.006889894 0.019904645 0.014314478 0.011128905 -0.002985446 -0.0063522495 0.0033252984 -0.001631949 -0.014943965 -0.009223417 -0.016525872 0.0026472865
0 -0.008855765 -0.0077191973 0.02768007 -0.017747471 -0.0023346855 -0.02806004 -0.019134628 0.016599981 0.0070819617 -0.0055185654 0.04296848 0.007296237 -0.02552013 -0.0079817055 -0.02957936 -0.0111668 -0.008560524 0.010080157 -0.010171521 0.021300284 0.029963354 -0.01569174 0.026717449 -0.010269606 -0.017614136 0.030813523 -0.027503239 0.0036581515 0.000119643635 -0.015568123 -0.025659025 0.0014329035 -0.020063171 0.0108917365 0.019306049 0.01796274 0.03485884 0.009272058 0.033444844 -0.003704018 -0.011372285 0.03500963 -0.0119739175 -0.023298383 0.022329468 -0.0012935849 0.011398395 -0.0058713644 -0.0104716215 -0.001759349 0.0033473037 -0.0024613722 0.005012033 0.026478318 0.03539832 0.0054115322 0.022186693 -0.012178617 -0.0015229739 -0.009997874 0.009806507 -0.027503844 0.00931623 -0.003736921 0.006993468 0.023360964 0.03070995 0.025585566 -0.005221346 0.0009046993 0.0005900348 -0.02493956 -0.0008149552 -0.021174645 -0.0066279876 0.0035257582 0.0141879665 -0.0006804311 0.003933091 0.009984192 -0.015794417 -0.012830702 0.016598057 0.019142315 -0.007340346 -0.010413799 0.023977742 -0.0018104911 0.011836096 0.016860591 -0.0017032475 -0.01450126 -0.021410413 -0.014167534 0.0261104 -0.015651504 -0.04002526 -0.022722503 0.016602814 0.0022947795 -0.050208285 0.016512066 0.005165702 0.007465942 0.026351485 0.008049659 -0.0038570338 -0.036641832 -0.016066298 -0.03712255 -0.011413621 -0.0048076664 -0.0075455583 -0.020556603 0.023352597 0.005194897 0.005247901 0.01687653 0.013620337 -3.422779e-05 -0.010410239 -0.0003903267 0.0019611712 -0.00741975 -0.013257378 -0.014239292 -0.00030797988 0.0020226326
7 -0.006705563 0.0020926376 0.032915436 -0.023651412 -0.0106273955 -0.03440806 -0.024506304 0.022744983 -0.0007631491 -0.007387331 0.042639025 0.018731587 -0.025001684 -0.01143381 -0.024058955 -0.017130045 -0.0127285365 0.013986471 -0.018527994 0.022226509 0.029141137 -0.023598578 0.032920413 -0.01278402 -0.012446841 0.033059385 -0.033286713 0.0027749187 0.0073204157 -0.016481435 -0.03838598 0.012259063 -0.015792537 0.0009298575 0.024965271 0.015133926 0.036561314 0.014932966 0.02250606 0.0040980815 -0.005892755 0.038766548 -0.015235581 -0.017458837 0.019601822 0.005924198 0.002228993 -0.010646792 -0.0065930206 0.0014363321 0.00808171 0.004121022 0.008179865 0.027617645 0.033098973 0.01858986 0.021107003 -0.009480289 0.002827213 -0.009000253 0.006747123 -0.025719568 0.008789931 1.4437633e-05 0.0009841872 0.023829246 0.04212847 0.023295162 -0.008097152 -0.009089455 -0.0065243086 -0.027769752 0.0020565565 -0.03032214 -0.0054970486 0.009396142 0.013785878 -0.00670684 0.00496268 0.0023376532 -0.012071944 -0.014123698 0.024496974 0.021632068 -0.0060104225 -0.009718676 0.021405851 0.006266112 0.01210826 0.013785407 -0.012959276 -0.009072349 -0.013264958 -0.007674166 0.01450005 -0.009916481 -0.03402956 -0.01908953 0.03017504 -0.00883455 -0.055013105 0.019734941 0.021064084 0.010233908 0.029633675 0.0012958257 0.008813409 -0.04319538 -0.018383222 -0.04009596 -0.007379115 9.02954e-05 -0.010346841 -0.022988582 0.026871948 0.0018325613 0.006656859 0.013646173 0.017826214 0.010347378 -0.007902992 -0.0066805827 0.0090375375 -0.015428721 -0.019390015 -0.016872946 -0.0035937198 -0.007682628
8 -0.012937084 0.00019157046 0.024932636 -0.019967755 -0.0003723913 -0.023158919 -0.019124137 0.015113394 0.008015899 0.0044057425 0.045881104 0.016826045 -0.018144043 -0.00919641 -0.027735965 -0.013430076 -0.011240307 0.011366188 -0.018826326 0.019638723 0.018218856 -0.019533232 0.022745997 -0.008188606 -0.017512007 0.026702205 -0.030096699 0.0032085234 -0.004548357 -0.010213359 -0.025981646 0.0043978505 -0.017102903 0.0030428777 0.021564402 0.013543088 0.022623932 0.0041368087 0.028052252 0.0014857947 -0.013664486 0.035122752 -0.021308977 -0.024573939 0.01724915 -0.0014134588 0.007173795 0.00047535828 -0.008489716 0.0065783476 0.01068421 0.007061612 0.00856621 0.012077739 0.025332429 0.015478696 0.023901207 -0.007261924 0.0054097986 0.0034458984 0.0014197507 -0.017994726 0.000595447 0.003378277 0.0077134827 0.018915655 0.036505535 0.023202937 -0.0044420576 -0.00020748764 -0.006856819 -0.018025514 0.008108921 -0.028034315 -0.0037444837 -0.0021026703 0.022634678 0.0070501943 0.004429947 0.01098127 -0.0115344785 -0.01487782 0.015473664 0.023877986 -0.0109271305 -0.00969568 0.024238706 0.0020586066 0.008636981 0.0141777545 -0.0013664515 -0.013573976 -0.018956393 -0.015713632 0.015814852 -0.021564683 -0.036327526 -0.028962282 0.02098237 -0.009077409 -0.05038202 0.007416374 0.0068592913 0.011576362 0.02410521 0.0026728506 -0.00038839824 -0.037623663 -0.010231584 -0.030503595 -0.0038072404 -0.0027039808 -0.0060293595 -0.01479687 0.01178469 -0.00020813453 -0.0062314575 0.014663937 0.01439158 0.011051761 -0.010511063 -0.0054840683 0.013193731 -0.007854816 -0.017383289 -0.0065723215 -0.005969251 -0.008539811
5 -0.0032618642 -2.7203374e-05 0.02153898 -0.018831478 -0.005431488 -0.0236293 -0.018457025 0.013457069 0.0022101067 -0.0009057499 0.04522271 0.012159117 -0.026566815 -0.0023330918 -0.018590838 -0.007590477 -0.017410852 0.014793296 -0.01791853 0.022565199 0.027616844 -0.011295509 0.028690085 -0.0022900049 -0.016945837 0.034214396 -0.029973103 0.0008899798 -0.00041147848 -0.0051625576 -0.036217302 0.0028820692 -0.008126912 0.0046232203 0.012209905 0.0065708165 0.03908864 0.01231787 0.032161266 -0.0028286076 -0.014093305 0.03705232 -0.010080616 -0.024991497 0.009444577 -0.00092423527 0.00080038235 -0.0087178545 -0.0076027517 -0.0047631664 0.01743095 -0.007784914 0.008113592 0.024755226 0.02922592 0.018319722 0.029007867 -0.01959905 -0.0045201923 -0.008297104 0.0036576996 -0.025421891 0.0002482919 -0.005780595 0.0038289735 0.019155584 0.038226925 0.021868344 -0.0075279893 -0.0039382493 -0.0021372973 -0.012859426 0.0011095812 -0.019922728 -0.01370019 0.011170263 0.014665924 0.0077091437 -0.0022875383 0.00909794 -0.012627577 -0.010661746 0.013633375 0.013173005 -0.013675678 -0.013375811 0.023747573 0.00015060966 0.009537167 0.023418963 -0.008365226 -0.011035116 -0.02480656 -0.019543884 0.027817193 -0.020523304 -0.040718585 -0.020205956 0.026481703 -0.007829647 -0.045177937 0.01036436 0.014295563 0.0034826996 0.020329919 0.004419647 0.008914057 -0.028968543 -0.019049104 -0.037844814 0.001881583 -0.0019462856 -0.010592797 -0.015581781 0.026972163 0.003812127 -0.0071002822 0.018422898 0.018847695 0.010689382 -0.0064183804 -0.008305079 0.0058682105 -0.008566575 -0.013062777 -0.020390207 -0.014970502 -0.0043537105
